digraph Tree {
node [shape=box, style="filled, rounded", color="black", fontname=helvetica] ;
edge [fontname=helvetica] ;
0 [label="petal length (cm) <= 2.6\ngini = 0.67\nsamples = 94\nvalue = [52, 48, 50]\nclass = setosa", fillcolor="#fefcfb"] ;
1 [label="gini = 0.0\nsamples = 32\nvalue = [52, 0, 0]\nclass = setosa", fillcolor="#e58139"] ;
0 -> 1 [labeldistance=2.5, labelangle=45, headlabel="True"] ;
2 [label="petal width (cm) <= 1.75\ngini = 0.5\nsamples = 62\nvalue = [0, 48, 50]\nclass = virginica", fillcolor="#faf7fe"] ;
0 -> 2 [labeldistance=2.5, labelangle=-45, headlabel="False"] ;
3 [label="petal length (cm) <= 4.95\ngini = 0.18\nsamples = 30\nvalue = [0, 46, 5]\nclass = versicolor", fillcolor="#4fe88f"] ;
2 -> 3 ;
4 [label="gini = 0.0\nsamples = 26\nvalue = [0, 45, 0]\nclass = versicolor", fillcolor="#39e581"] ;
3 -> 4 ;
5 [label="petal width (cm) <= 1.65\ngini = 0.28\nsamples = 4\nvalue = [0, 1, 5]\nclass = virginica", fillcolor="#9a61ea"] ;
3 -> 5 ;
6 [label="gini = 0.0\nsamples = 3\nvalue = [0, 0, 5]\nclass = virginica", fillcolor="#8139e5"] ;
5 -> 6 ;
7 [label="gini = 0.0\nsamples = 1\nvalue = [0, 1, 0]\nclass = versicolor", fillcolor="#39e581"] ;
5 -> 7 ;
8 [label="sepal width (cm) <= 3.15\ngini = 0.08\nsamples = 32\nvalue = [0, 2, 45]\nclass = virginica", fillcolor="#8742e6"] ;
2 -> 8 ;
9 [label="gini = 0.0\nsamples = 24\nvalue = [0, 0, 36]\nclass = virginica", fillcolor="#8139e5"] ;
8 -> 9 ;
10 [label="sepal length (cm) <= 6.1\ngini = 0.3\nsamples = 8\nvalue = [0, 2, 9]\nclass = virginica", fillcolor="#9d65eb"] ;
8 -> 10 ;
11 [label="gini = 0.0\nsamples = 1\nvalue = [0, 2, 0]\nclass = versicolor", fillcolor="#39e581"] ;
10 -> 11 ;
12 [label="gini = 0.0\nsamples = 7\nvalue = [0, 0, 9]\nclass = virginica", fillcolor="#8139e5"] ;
10 -> 12 ;
}