digraph Tree {
node [shape=box, style="filled, rounded", color="black", fontname=helvetica] ;
edge [fontname=helvetica] ;
0 [label="petal width (cm) <= 0.75\ngini = 0.66\nsamples = 90\nvalue = [44, 52, 54]\nclass = virginica", fillcolor="#fcfbfe"] ;
1 [label="gini = 0.0\nsamples = 29\nvalue = [44, 0, 0]\nclass = setosa", fillcolor="#e58139"] ;
0 -> 1 [labeldistance=2.5, labelangle=45, headlabel="True"] ;
2 [label="petal length (cm) <= 4.8\ngini = 0.5\nsamples = 61\nvalue = [0, 52, 54]\nclass = virginica", fillcolor="#faf8fe"] ;
0 -> 2 [labeldistance=2.5, labelangle=-45, headlabel="False"] ;
3 [label="gini = 0.0\nsamples = 30\nvalue = [0, 48, 0]\nclass = versicolor", fillcolor="#39e581"] ;
2 -> 3 ;
4 [label="petal width (cm) <= 1.7\ngini = 0.13\nsamples = 31\nvalue = [0, 4, 54]\nclass = virginica", fillcolor="#8a48e7"] ;
2 -> 4 ;
5 [label="petal length (cm) <= 5.35\ngini = 0.48\nsamples = 6\nvalue = [0, 4, 6]\nclass = virginica", fillcolor="#d5bdf6"] ;
4 -> 5 ;
6 [label="sepal width (cm) <= 2.45\ngini = 0.49\nsamples = 4\nvalue = [0, 4, 3]\nclass = versicolor", fillcolor="#cef8e0"] ;
5 -> 6 ;
7 [label="gini = 0.0\nsamples = 1\nvalue = [0, 0, 2]\nclass = virginica", fillcolor="#8139e5"] ;
6 -> 7 ;
8 [label="petal width (cm) <= 1.55\ngini = 0.32\nsamples = 3\nvalue = [0, 4, 1]\nclass = versicolor", fillcolor="#6aeca0"] ;
6 -> 8 ;
9 [label="petal length (cm) <= 5.0\ngini = 0.5\nsamples = 2\nvalue = [0, 1, 1]\nclass = versicolor", fillcolor="#ffffff"] ;
8 -> 9 ;
10 [label="gini = 0.0\nsamples = 1\nvalue = [0, 1, 0]\nclass = versicolor", fillcolor="#39e581"] ;
9 -> 10 ;
11 [label="gini = 0.0\nsamples = 1\nvalue = [0, 0, 1]\nclass = virginica", fillcolor="#8139e5"] ;
9 -> 11 ;
12 [label="gini = 0.0\nsamples = 1\nvalue = [0, 3, 0]\nclass = versicolor", fillcolor="#39e581"] ;
8 -> 12 ;
13 [label="gini = 0.0\nsamples = 2\nvalue = [0, 0, 3]\nclass = virginica", fillcolor="#8139e5"] ;
5 -> 13 ;
14 [label="gini = 0.0\nsamples = 25\nvalue = [0, 0, 48]\nclass = virginica", fillcolor="#8139e5"] ;
4 -> 14 ;
}